{
  "layers": [
    {
      "inputs": [
        0.3388993265507848,
        0.26243264756774176,
        0.09632436159645574,
        0,
        0,
        0,
        0,
        0,
        0,
        0.17876445521023665
      ],
      "outputs": [
        1,
        1,
        1,
        0,
        1,
        0,
        1,
        0,
        0,
        0,
        0,
        1
      ],
      "biases": [
        -0.05759620207261751,
        -0.12275853627732332,
        -0.04088234441570485,
        0.07837870247295431,
        -0.2756305913280159,
        0.10641404127317017,
        -0.38286712654737654,
        0.2685030738439984,
        0.011701702993898333,
        0.0685022551099214,
        0.26918633877129006,
        0.06663280811350997
      ],
      "weights": [
        [
          0.09477285212201929,
          -0.2824551316069412,
          -0.26278480731908294,
          0.08483069435759921,
          0.04980247573438182,
          -0.28814439953865234,
          -0.1984322632892458,
          0.11170875141705738,
          -0.03022225500486156,
          -0.19159354631854592,
          -0.032156800392142665,
          0.26983273808438857
        ],
        [
          -0.161029487481785,
          -0.03434809132341074,
          0.056985271225382966,
          -0.08409106339370781,
          -0.19040351182725787,
          -0.3532353465826008,
          0.21129625241749303,
          -0.16741287517827502,
          -0.013886499162851479,
          0.21497495073702885,
          -0.06754420208846301,
          0.07402686731239627
        ],
        [
          -0.026913410774828228,
          0.017553665730519113,
          0.04656657683518524,
          0.16597911409376404,
          -0.37546853576651784,
          0.3024651816523986,
          0.07282388699641001,
          -0.186786440411287,
          -0.12628615568199247,
          0.36501827509961826,
          0.3138770527593096,
          0.0345857806736132
        ],
        [
          -0.12837307525762415,
          -0.19115281933660752,
          0.20744245299971423,
          -0.3036375743017109,
          0.12267248626049354,
          0.05645283150603763,
          -0.22904125182432958,
          -0.17291085123658345,
          0.06040563225711654,
          -0.19723786025928064,
          -0.22248218194792765,
          0.10115701321207513
        ],
        [
          -0.07815232410084307,
          -0.2706996712358366,
          0.19267992943167717,
          -0.05265196283232765,
          0.07264449941568714,
          0.03375475429474137,
          0.008682442869959756,
          -0.07539542913449951,
          -0.3465885782347564,
          -0.1429288397180446,
          -0.11530838506854982,
          -0.019211543418307164
        ],
        [
          -0.054802576209323106,
          0.31223159018632085,
          -0.010613574306555913,
          -0.04202834673409808,
          -0.13379735852561525,
          0.22052050698230202,
          -0.08637836872525524,
          -0.0747796218391987,
          -0.29254478107486437,
          -0.0066394656332264546,
          0.20285759505481898,
          -0.07967040674715849
        ],
        [
          0.04372325528557633,
          0.44951947101142614,
          0.21430643946798617,
          -0.060450311557118816,
          -0.07352842254343653,
          0.4599642942065336,
          -0.027508679016888388,
          0.05186397033350856,
          -0.34133510839481945,
          0.23726824415255962,
          0.12826640349494517,
          0.2334698011265107
        ],
        [
          0.07522093823047099,
          -0.3621446384035495,
          0.16774267892689326,
          -0.17047670010606633,
          -0.002589687949468039,
          0.10421795553130705,
          -0.1742993937788994,
          -0.4225300178797995,
          -0.32139956582880236,
          0.10694812044387668,
          0.31112229878392583,
          -0.10785284780228545
        ],
        [
          -0.275815763967617,
          -0.06441258380285039,
          -0.1957152014237687,
          0.30022749287063233,
          -0.18475520497016473,
          -0.09721294192493349,
          -0.13349438281493403,
          -0.086735996075267,
          0.24077437018766373,
          0.14883647042653733,
          0.03699087312508802,
          -0.09612791263799612
        ],
        [
          -0.10814679654445122,
          0.36213446491044365,
          0.28444886675337244,
          0.07767992790999467,
          -0.15577876381876815,
          -0.37200107045979863,
          0.35124384096498656,
          0.08419686907570212,
          -0.20816999718871004,
          -0.02959399779808841,
          -0.039409037367357645,
          0.1321607467447255
        ]
      ]
    },
    {
      "inputs": [
        1,
        1,
        1,
        0,
        1,
        0,
        1,
        0,
        0,
        0,
        0,
        1
      ],
      "outputs": [
        1,
        0,
        0,
        0
      ],
      "biases": [
        -0.010326570950143,
        0.17493576804695346,
        -0.2574912078789696,
        0.1954899054706147
      ],
      "weights": [
        [
          -0.07189463492545477,
          0.20372750922746158,
          -0.21479077441220915,
          0.22856795912300598
        ],
        [
          0.00202469342643459,
          -0.12066490127485613,
          -0.22019619871258334,
          -0.20729106846057943
        ],
        [
          0.1783703140669821,
          0.11850563244023007,
          0.062157679041201105,
          0.04947390072855554
        ],
        [
          0.2243560671168775,
          0.5429072235152856,
          -0.07554330583602205,
          -0.0663663712491053
        ],
        [
          -0.04153366842644557,
          -0.03228853898499945,
          -0.08326445130786289,
          0.05941304939950476
        ],
        [
          0.03851642815118822,
          -0.170463784516386,
          -0.46699136650511863,
          -0.2868807374236647
        ],
        [
          0.3831195750714088,
          -0.00011147557564177013,
          0.07928730989004032,
          -0.2158438817638532
        ],
        [
          0.29427117041816436,
          0.15007172782832867,
          0.09917686741083616,
          -0.11660275474731649
        ],
        [
          -0.04155379300926566,
          -0.08751720767986995,
          0.0125101131996882,
          0.14446588274928582
        ],
        [
          0.3649921000030979,
          0.10363889850117909,
          -0.16147594097565365,
          0.1352368155514467
        ],
        [
          -0.24564816216072277,
          0.21707551810575362,
          -0.5544049072657765,
          -0.24328097038792715
        ],
        [
          0.1339271322379145,
          -0.40638673139326265,
          0.11740067215463007,
          0.03798782678552455
        ]
      ]
    }
  ]
}